{"ip":0,"fr":5,"v":"5.1.20","assets":[],"layers":[{"ty":4,"nm":"cobra3","ip":0,"st":0,"ind":1,"hix":1,"ks":{"o":{"a":0,"k":100},"or":{"a":0,"k":[0,0,0]},"a":{"a":0,"k":[275,200,0]},"p":{"s":true,"x":{"a":0,"k":275},"y":{"a":0,"k":200}},"rx":{"a":0,"k":0},"ry":{"a":0,"k":0},"rz":{"a":0,"k":0},"s":{"a":0,"k":[100,100,100]}},"shapes":[{"ty":"gr","nm":"cobra3 shape group","it":[{"ty":"sh","ks":{"a":0,"k":{"c":false,"v":[[423.333,304],[444.899,308.727],[435.339,312.98199999999997],[420.666,313.66799999999995],[403.789,312.92699999999996],[396.99899999999997,302.33399999999995],[385.66599999999994,261.65],[380.99899999999997,230.01299999999998],[377.92199999999997,208.98299999999998],[371.092,190.97599999999997],[358.991,164.80999999999997],[376.27,148.73499999999999],[399.99899999999997,142.75099999999998],[408.991,141.00099999999998],[415.34,137.66799999999998],[415.674,117.66099999999997],[385.323,87.65099999999997],[358.943,107.09999999999997],[370.982,141.333],[383.249,156.417],[400.934,171.351],[415.389,184.992],[415.076,203.09699999999998],[393.668,222.66599999999997],[355.052,234.643],[353.40700000000004,211.668],[372.00000000000006,198.333],[395.3140000000001,195.926],[405.8620000000001,205.29899999999998],[390.8880000000001,254.08099999999996],[382.4580000000001,266.20699999999994],[371.44700000000006,275.4099999999999],[350.73800000000006,287.1069999999999],[334.47700000000003,289.68999999999994],[318.692,283.98499999999996],[299.733,247.26599999999996],[315.843,231.93899999999996],[340.23900000000003,247.24999999999997],[344.999,266.667],[333.65900000000005,288.332],[312.93800000000005,296.531],[293.22400000000005,299.341],[267.8910000000001,302.74],[187.99900000000008,306.333],[153.65900000000008,304.886],[145.80600000000007,308.252],[131.37800000000007,314.445],[97.33200000000008,313.667],[116.92500000000008,300.91799999999995],[125.33000000000008,296.24199999999996],[131.99900000000008,290.40599999999995],[142.33900000000008,288.32599999999996],[150.30900000000008,293.01099999999997],[175.64200000000008,293.99899999999997],[195.99900000000008,289.99999999999994]],"i":[[0,0],[-4.538999999999987,-3.7309999999999945],[3.4780000000000086,-0.8489999999999895],[6.086000000000013,0.771000000000015],[3.7660000000000196,1.1619999999999777],[2.3500000000000227,4.448000000000036],[0.0020000000000095497,14.528999999999996],[0.010999999999967258,10.646999999999991],[1.9780000000000086,6.391999999999996],[2.842999999999961,5.265999999999991],[1.0249999999999773,3.4879999999999995],[-6.933999999999969,2.8109999999999786],[-7.777999999999963,2.545000000000016],[-3.313000000000045,-0.03899999999998727],[-0.9189999999999827,3.9110000000000014],[0.8290000000000077,5.564999999999998],[20.009000000000015,-0.35599999999999454],[1.8269999999999982,-23.031999999999996],[-2.5370000000000346,-4.689999999999998],[-5.113999999999976,-3.8969999999999914],[-6.033999999999992,-4.8729999999999905],[-4.128999999999962,-5.421999999999997],[6.639999999999986,-6.0049999999999955],[2.4050000000000296,-1.9799999999999898],[14.947999999999979,6.356999999999999],[-3.8500000000000227,5.86099999999999],[-7.653999999999996,2.748000000000019],[-7.230000000000018,-0.8199999999999932],[-2.0810000000000173,-3.1839999999999975],[15.778999999999996,-21.413999999999987],[3.620999999999981,-3.541999999999973],[3.8730000000000473,-2.763999999999953],[6.898000000000025,-2.1650000000000205],[5.275000000000034,0.7919999999999732],[5.160000000000025,3.3389999999999986],[-2.1759999999999877,13.701000000000022],[-12.081000000000017,0],[-4.0120000000000005,-6.774000000000001],[-0.36299999999999955,-7.113999999999976],[7.541999999999973,-5.499000000000024],[7.204999999999984,-1.3350000000000364],[2.8079999999999927,-0.28899999999998727],[8.419999999999959,-1.1100000000000136],[34,1],[9.462999999999994,-3.187999999999988],[2.605000000000018,-0.978999999999985],[6.75800000000001,-2.4699999999999704],[3.083999999999989,0.33899999999999864],[-4.147000000000006,2.3740000000000236],[-2.790999999999997,1.6730000000000018],[-2.4209999999999923,1.8149999999999977],[-3.212999999999994,-1.016999999999996],[-3.5860000000000127,-0.771000000000015],[-8.211999999999989,0.26799999999997226],[-5.859000000000009,2.9600000000000364]],"o":[[5.588000000000022,0.002999999999985903],[7.000999999999976,5.754000000000019],[-5.817000000000007,1.420000000000016],[-3.9320000000000164,-0.49900000000002365],[-5.170999999999992,-1.5960000000000036],[-6.579999999999984,-12.454000000000008],[-0.0020000000000095497,-10.913999999999987],[-0.007000000000005002,-6.729000000000013],[-1.771000000000015,-5.7239999999999895],[-2.8799999999999955,-5.334000000000003],[-2.973000000000013,-10.11699999999999],[7.781999999999982,-3.1539999999999964],[2.9180000000000064,-0.9550000000000125],[3.1639999999999873,0.03700000000000614],[1.2660000000000196,-5.389999999999986],[-0.7590000000000146,-5.096000000000004],[-4.757999999999981,0.08499999999999375],[-0.9429999999999836,11.900000000000034],[3.1820000000000164,5.882000000000005],[6.093999999999994,4.64500000000001],[5.357000000000028,4.328000000000003],[4.968000000000018,6.524000000000001],[-6.930999999999983,6.2690000000000055],[-3.204999999999984,2.640000000000043],[-12.764999999999986,-5.429000000000002],[4.701999999999998,-7.157000000000011],[6.795999999999992,-2.438999999999993],[3.6960000000000264,0.41900000000001114],[3.0230000000000246,4.625],[-3.021000000000015,4.101999999999975],[-3.4259999999999877,3.3500000000000227],[-5.971000000000004,4.2620000000000005],[-5.329000000000008,1.6730000000000018],[-6.218999999999994,-0.9340000000000259],[-10.937000000000012,-7.074000000000012],[0.478999999999985,-3.008999999999986],[8.254000000000019,0],[3.783999999999992,6.38900000000001],[0.5040000000000191,9.879000000000019],[-5.937999999999988,4.329999999999984],[-3.8969999999999914,0.7230000000000132],[-8.437000000000012,0.8659999999999854],[-27.335000000000008,3.6030000000000086],[-9.834000000000003,-0.28899999999998727],[-2.734000000000009,0.9209999999999923],[-6.764999999999986,2.5439999999999827],[-4.805000000000007,1.757000000000005],[1.4309999999999974,-4.6129999999999995],[2.7549999999999955,-1.5779999999999745],[2.887999999999991,-1.7300000000000182],[2.5080000000000098,-1.8809999999999718],[2.8870000000000005,0.9139999999999873],[8.018,1.72199999999998],[6.564999999999998,-0.214999999999975],[0,0]]}}},{"ty":"st","o":{"a":0,"k":100},"c":{"a":0,"k":[0.8705882352941177,0.3411764705882353,0.15294117647058825,1]},"lc":3,"lj":1,"ml":1,"w":{"a":0,"k":1},"d":[{"n":"d","v":{"a":0,"k":1300},"nm":"0"},{"n":"g","v":{"a":0,"k":1300},"nm":"1"},{"n":"o","v":{"a":1,"k":[{"t":0,"s":[1300],"e":[0],"i":{"x":[0.515],"y":[0.955]},"o":{"x":[0.455],"y":[0.03]}},{"t":20}]},"nm":"2"}]},{"ty":"fl","o":{"a":0,"k":0},"c":{"a":0,"k":[0,0,0,0]},"r":1},{"ty":"tr","o":{"a":0,"k":100},"a":{"a":0,"k":[0,0]},"s":{"a":0,"k":[100,100]},"p":{"a":0,"k":[0,0]},"r":{"a":0,"k":0}}]}],"op":20}],"op":25,"w":550,"h":400}